[
   {
      "sensor_gains": [
         14.700942691892447,
         14.700942691892447
      ],
      "sensor_biases": [
         -2.656159417506263,
         -2.656159417506263
      ],
      "sensor_weights": [
         [
            5.844448735213622,
            -7.306119545135409
         ],
         [
            -3.5945813143691163,
            6.90924778487372
         ]
      ],
      "neural_taus": [
         1.48898461513191,
         1.48898461513191
      ],
      "neural_biases": [
         0.6368907310238523,
         0.6368907310238523
      ],
      "neural_gains": [
         1.0,
         1.0
      ],
      "neural_weights": [
         [
            -6.073740027767151,
            0.2781881226387646
         ],
         [
            -0.6409709526243469,
            -2.941904786312266
         ]
      ],
      "motor_gains": [
         4.977181623445361,
         4.977181623445361
      ],
      "motor_biases": [
         -2.2456448524065977,
         -2.2456448524065977
      ],
      "motor_weights": [
         [
            3.2775850123051646,
            -3.577861682175411
         ],
         [
            -6.599143623633959,
            3.800930784246329
         ]
      ]
   },
   {
      "sensor_gains": [
         10.875852151378064,
         10.875852151378064
      ],
      "sensor_biases": [
         -2.970130700155514,
         -2.970130700155514
      ],
      "sensor_weights": [
         [
            7.928184936129057,
            -6.793137135651756
         ],
         [
            -3.982835933074994,
            8.0
         ]
      ],
      "neural_taus": [
         1.5341967275831843,
         1.5341967275831843
      ],
      "neural_biases": [
         0.10889499042520959,
         0.10889499042520959
      ],
      "neural_gains": [
         1.0,
         1.0
      ],
      "neural_weights": [
         [
            -4.467238473720188,
            -0.31455194660763486
         ],
         [
            -2.899295695301221,
            -1.7519933969225228
         ]
      ],
      "motor_gains": [
         7.709077824420826,
         7.709077824420826
      ],
      "motor_biases": [
         -2.3182135865957934,
         -2.3182135865957934
      ],
      "motor_weights": [
         [
            3.9787523027972926,
            -6.315781523897193
         ],
         [
            -4.411613572118542,
            2.498464148121174
         ]
      ]
   }
]