[
   {
      "sensor_gains": [
         14.700942691892447,
         14.700942691892447
      ],
      "sensor_biases": [
         -2.656159417506263,
         -2.656159417506263
      ],
      "sensor_weights": [
         [
            5.844448735213622,
            -7.306119545135409
         ],
         [
            -3.5945813143691163,
            6.90924778487372
         ]
      ],
      "neural_taus": [
         1.48898461513191,
         1.48898461513191
      ],
      "neural_biases": [
         0.6368907310238523,
         0.6368907310238523
      ],
      "neural_gains": [
         1.0,
         1.0
      ],
      "neural_weights": [
         [
            -6.073740027767151,
            0.2781881226387646
         ],
         [
            -0.6409709526243469,
            -2.941904786312266
         ]
      ],
      "motor_gains": [
         4.977181623445361,
         4.977181623445361
      ],
      "motor_biases": [
         -2.2456448524065977,
         -2.2456448524065977
      ],
      "motor_weights": [
         [
            3.2775850123051646,
            -3.577861682175411
         ],
         [
            -6.599143623633959,
            3.800930784246329
         ]
      ]
   },
   {
      "sensor_gains": [
         12.772545310986654,
         12.772545310986654
      ],
      "sensor_biases": [
         -2.880213951538683,
         -2.880213951538683
      ],
      "sensor_weights": [
         [
            6.675304374132922,
            -6.527839234247324
         ],
         [
            -7.630879980708486,
            6.870200472581331
         ]
      ],
      "neural_taus": [
         1.6251387172987652,
         1.6251387172987652
      ],
      "neural_biases": [
         0.7887568178046,
         0.7887568178046
      ],
      "neural_gains": [
         1.0,
         1.0
      ],
      "neural_weights": [
         [
            -6.871086879639234,
            1.678463283791418
         ],
         [
            -1.8181324274060717,
            -3.1650994058838617
         ]
      ],
      "motor_gains": [
         8.92491256465469,
         8.92491256465469
      ],
      "motor_biases": [
         -1.423580674638889,
         -1.423580674638889
      ],
      "motor_weights": [
         [
            5.9235246343284516,
            -6.5703443748341295
         ],
         [
            -4.683490197332689,
            2.2344473153218116
         ]
      ]
   }
]