[
   {
      "sensor_gains": [
         14.700942691892447,
         14.700942691892447
      ],
      "sensor_biases": [
         -2.656159417506263,
         -2.656159417506263
      ],
      "sensor_weights": [
         [
            5.844448735213622,
            -7.306119545135409
         ],
         [
            -3.5945813143691163,
            6.90924778487372
         ]
      ],
      "neural_taus": [
         1.48898461513191,
         1.48898461513191
      ],
      "neural_biases": [
         0.6368907310238523,
         0.6368907310238523
      ],
      "neural_gains": [
         1.0,
         1.0
      ],
      "neural_weights": [
         [
            -6.073740027767151,
            0.2781881226387646
         ],
         [
            -0.6409709526243469,
            -2.941904786312266
         ]
      ],
      "motor_gains": [
         4.977181623445361,
         4.977181623445361
      ],
      "motor_biases": [
         -2.2456448524065977,
         -2.2456448524065977
      ],
      "motor_weights": [
         [
            3.2775850123051646,
            -3.577861682175411
         ],
         [
            -6.599143623633959,
            3.800930784246329
         ]
      ]
   },
   {
      "sensor_gains": [
         13.356417638736806,
         13.356417638736806
      ],
      "sensor_biases": [
         -2.809189461012103,
         -2.809189461012103
      ],
      "sensor_weights": [
         [
            5.872175907289544,
            -7.403889927169738
         ],
         [
            -1.8733060010666298,
            7.780882543173646
         ]
      ],
      "neural_taus": [
         1.425340205835015,
         1.425340205835015
      ],
      "neural_biases": [
         -0.34384858949177877,
         -0.34384858949177877
      ],
      "neural_gains": [
         1.0,
         1.0
      ],
      "neural_weights": [
         [
            -7.132342160187927,
            -1.5920316168528197
         ],
         [
            -1.5641839244871862,
            -3.034417597298823
         ]
      ],
      "motor_gains": [
         9.825890920584968,
         9.825890920584968
      ],
      "motor_biases": [
         -2.380456828165222,
         -2.380456828165222
      ],
      "motor_weights": [
         [
            4.072992419178034,
            -3.3954683791270655
         ],
         [
            -4.656232470048266,
            4.066734920643096
         ]
      ]
   }
]